{
  "input_nodes": 6,
  "hidden_nodes": 6,
  "output_nodes": 1,
  "weights_ih": {
    "rows": 6,
    "cols": 6,
    "data": [
      [
        -2.9628052263560365,
        -3.1085337423044663,
        -2.517563951606046,
        3.210129526837711,
        -4.347227312896248,
        0.3157011825455796
      ],
      [
        -3.9724770603045627,
        -1.8657333184338918,
        0.5651783650394404,
        4.091429163560779,
        0.5148586656811341,
        0.0887170430636667
      ],
      [
        2.1406532920863786,
        1.1639014548926907,
        0.7397567874426829,
        4.563298501104005,
        2.8761448257517666,
        1.056123501610612
      ],
      [
        -1.3358639735981257,
        -1.2510994603202463,
        1.3220717152050492,
        -0.9486705581758921,
        0.5730085166460787,
        -6.5990459463081494
      ],
      [
        -2.806879784197412,
        0.6110062302896203,
        1.229403620656954,
        3.334824625952842,
        -3.6848378274114437,
        -0.47989946756486146
      ],
      [
        -2.0734779146602587,
        1.1997798763262701,
        -0.448566783807911,
        1.904994747870409,
        -0.06925941153655893,
        0.11396781825274635
      ]
    ]
  },
  "weights_ho": {
    "rows": 1,
    "cols": 6,
    "data": [
      [
        -0.687359342187105,
        -1.2241458232278304,
        0.5295968301122989,
        -0.3601261019624423,
        -0.4034185240428212,
        -0.9401980568677003
      ]
    ]
  },
  "bias_h": {
    "rows": 6,
    "cols": 1,
    "data": [
      [
        -0.21116217583877717
      ],
      [
        0.9919480143360538
      ],
      [
        1.231062779273941
      ],
      [
        -1.9211125183414852
      ],
      [
        -2.1241813618173717
      ],
      [
        -1.4809416769022197
      ]
    ]
  },
  "bias_o": {
    "rows": 1,
    "cols": 1,
    "data": [
      [
        -0.008527686688053045
      ]
    ]
  },
  "info": {
    "input": [
      0.21927272833042097,
      0.49411764705882366,
      0.052,
      0.044657673758595445,
      0,
      0.9995084587058423
    ],
    "hidden": [
      0.11216485735531868,
      0.37748821564043383,
      0.972705919207756,
      0.00008258158064676158,
      0.0627051886588389,
      0.2373782210489034
    ],
    "output": [
      0.43018592684585144
    ]
  },
  "learning_rate": 0.1,
  "activation_function": {}
}
